
\data\
ngram 1=15
ngram 2=19

\1-grams:
-0.845098	</s>
-99	<s>	-0.5351132
-1.322219	、/、	-0.2575643
-1.322219	あり/あり	-0.2798407
-1.322219	で/で	-0.2340832
-1.021189	です/です	-0.4101745
-1.322219	の/の	-0.2798407
-0.845098	は/は	-0.5102895
-1.322219	ませ/ませ	-0.2798407
-1.322219	ん/ん	-0.2340832
-1.021189	中野/なかの	-0.4101744
-1.322219	名前/なまえ	-0.2340832
-1.322219	日本人/にほんじん	-0.2575643
-1.322219	私/わたくし	-0.2798407
-1.021189	私/わたし	-0.3853509

\2-grams:
-0.60206	<s> 私/わたくし
-0.30103	<s> 私/わたし
-0.30103	、/、 中野/なかの
-0.30103	あり/あり ませ/ませ
-0.30103	で/で は/は
-0.1760913	です/です </s>
-0.30103	の/の 名前/なまえ
-0.60206	は/は あり/あり
-0.60206	は/は 中野/なかの
-0.60206	は/は 日本人/にほんじん
-0.30103	ませ/ませ ん/ん
-0.30103	ん/ん </s>
-0.4771213	中野/なかの で/で
-0.4771213	中野/なかの です/です
-0.30103	名前/なまえ は/は
-0.30103	日本人/にほんじん です/です
-0.30103	私/わたくし 、/、
-0.4771213	私/わたし の/の
-0.4771213	私/わたし は/は

\end\
